{
  "bias": [
    -1.1316367387771606,
    -1.314549207687378,
    -1.4818921089172363,
    -1.445149302482605,
    1.604442834854126
  ],
  "class_counts": {
    "ask_chessbot": 40,
    "best_move": 40,
    "eval": 40,
    "evaluate_move": 48,
    "plain_answer": 40
  },
  "device": "cpu",
  "example_count": 208,
  "labels": [
    "ask_chessbot",
    "best_move",
    "eval",
    "evaluate_move",
    "plain_answer"
  ],
  "model_type": "basic-torch-linear-router-sft-v2",
  "trainer": "linear",
  "vocabulary": [
    "a",
    "about",
    "am",
    "an",
    "and",
    "answer",
    "bad",
    "balanced",
    "beginners",
    "best",
    "best_move",
    "better",
    "black",
    "blunder",
    "board",
    "but",
    "call",
    "called",
    "can",
    "candidate",
    "castling",
    "check",
    "chess",
    "clown",
    "consider",
    "cooked",
    "cool",
    "current",
    "defense",
    "development",
    "did",
    "do",
    "does",
    "don",
    "endgame",
    "engine",
    "eval",
    "evaluate",
    "evaluation",
    "explain",
    "feels",
    "find",
    "for",
    "fork",
    "generally",
    "give",
    "good",
    "hello",
    "here",
    "hey",
    "hi",
    "how",
    "i",
    "idea",
    "if",
    "in",
    "is",
    "it",
    "just",
    "king",
    "last",
    "legal",
    "like",
    "looking",
    "m",
    "matters",
    "me",
    "mean",
    "mess",
    "move",
    "my",
    "next",
    "ng5",
    "ngl",
    "nh3",
    "nh6",
    "normally",
    "not",
    "now",
    "ok",
    "openings",
    "opposition",
    "or",
    "pawn",
    "pick",
    "pins",
    "play",
    "please",
    "position",
    "practical",
    "project",
    "readme",
    "review",
    "rules",
    "run",
    "s",
    "say",
    "score",
    "should",
    "show",
    "sicilian",
    "side",
    "strong",
    "structure",
    "stuck",
    "suggest",
    "summarize",
    "t",
    "tactically",
    "tell",
    "thank",
    "thanks",
    "the",
    "there",
    "think",
    "this",
    "throw",
    "to",
    "tool",
    "tried",
    "try",
    "unsafe",
    "up",
    "use",
    "useful",
    "was",
    "weather",
    "what",
    "whether",
    "which",
    "white",
    "who",
    "why",
    "winning",
    "with",
    "work",
    "works",
    "would",
    "you"
  ],
  "weights": [
    [
      1.5747909545898438,
      0.6734879016876221,
      -0.9716609716415405,
      -1.0343929529190063,
      -1.1428967714309692,
      -0.6199145913124084,
      -0.9896402955055237,
      -0.6628394722938538,
      0.7741280198097229,
      -2.208066940307617,
      1.0936036109924316,
      -1.0166289806365967,
      -0.7893575429916382,
      -1.4215434789657593,
      -1.0043494701385498,
      -0.6934729218482971,
      -0.730487585067749,
      -0.7793319821357727,
      -0.6365773677825928,
      -0.8422979116439819,
      1.037880778312683,
      -0.8180309534072876,
      1.2151824235916138,
      -0.6125925183296204,
      -1.213365912437439,
      -0.9220418930053711,
      -1.2384991645812988,
      -0.886971116065979,
      1.4367724657058716,
      0.8112945556640625,
      -0.6391392350196838,
      1.082645297050476,
      1.073049783706665,
      -0.7411496639251709,
      0.7590999603271484,
      -1.0390434265136719,
      1.5351201295852661,
      -0.9655701518058777,
      -0.8793419599533081,
      0.8636484146118164,
      0.5724396705627441,
      -0.8055901527404785,
      -0.6123656034469604,
      1.569035291671753,
      0.996520459651947,
      -0.7183266282081604,
      -1.1877583265304565,
      -1.5509992837905884,
      -1.003341555595398,
      -1.130162239074707,
      -1.8199870586395264,
      0.5508551001548767,
      -0.938938319683075,
      -0.9359341263771057,
      -0.5837098956108093,
      0.7952149510383606,
      1.047243595123291,
      -1.076007604598999,
      -0.71488356590271,
      0.7260119318962097,
      -0.8597337007522583,
      -1.058701992034912,
      -1.8678326606750488,
      -1.4322470426559448,
      -0.8304315209388733,
      0.7538928985595703,
      -0.7413157820701599,
      1.1737650632858276,
      -0.6843680143356323,
      -1.0283186435699463,
      0.08521207422018051,
      -0.7663366198539734,
      -1.0518168210983276,
      -0.7295416593551636,
      -0.9567559361457825,
      -0.924302875995636,
      -0.6457757949829102,
      -0.820828914642334,
      -1.153444528579712,
      -1.2309554815292358,
      0.7655707597732544,
      0.7969908714294434,
      -0.7796037197113037,
      0.7960219383239746,
      -0.5835999250411987,
      0.9426665902137756,
      -0.9612029194831848,
      -0.9728557467460632,
      -0.9854233860969543,
      -0.6627600789070129,
      -0.8341498970985413,
      -0.7652345895767212,
      -0.9640534520149231,
      0.9881526231765747,
      -1.1304820775985718,
      -0.996553361415863,
      -0.7264318466186523,
      -0.5917225480079651,
      0.17063744366168976,
      -0.7196885943412781,
      1.399415135383606,
      -0.5972830057144165,
      -0.720035195350647,
      0.7374604344367981,
      -0.7356281280517578,
      -0.8295465111732483,
      -0.7470446825027466,
      -0.6491544842720032,
      -0.7646044492721558,
      -0.7104897499084473,
      -1.1091166734695435,
      -1.7143609523773193,
      -0.9628263711929321,
      -1.215437889099121,
      0.7209081649780273,
      -1.029030203819275,
      -0.7061837315559387,
      -0.5497235059738159,
      -0.6741437911987305,
      -0.8314474821090698,
      -0.8169570565223694,
      0.5314691662788391,
      -0.7132079005241394,
      -0.6718451380729675,
      -1.062717080116272,
      -1.0650824308395386,
      -1.8778618574142456,
      1.1353223323822021,
      -0.7043706774711609,
      -0.7180326581001282,
      -0.802121639251709,
      -1.2283527851104736,
      0.7297109961509705,
      -0.622775673866272,
      -0.7262733578681946,
      1.0074824094772339,
      -0.6925835013389587,
      -0.9482075572013855,
      -1.0616623163223267
    ],
    [
      0.9841267466545105,
      -0.7800218462944031,
      -0.7537373900413513,
      -1.1080927848815918,
      -0.8715171813964844,
      -0.6336038708686829,
      -0.7725889086723328,
      -0.6666838526725769,
      -0.8027039766311646,
      1.7838605642318726,
      -1.1590182781219482,
      -0.874210774898529,
      -0.5934348702430725,
      -1.2156784534454346,
      0.6110929250717163,
      -0.6436141133308411,
      -0.563643217086792,
      -0.6083415746688843,
      -1.2819600105285645,
      1.134055733680725,
      -0.8823142647743225,
      -1.5072882175445557,
      -0.6385984420776367,
      -1.0367950201034546,
      1.0447155237197876,
      -0.8702161908149719,
      -1.114913821220398,
      -1.1188273429870605,
      -1.6885913610458374,
      -0.6288244724273682,
      -0.8894270062446594,
      -0.700350821018219,
      -1.225656509399414,
      -0.5399148464202881,
      -0.7174752354621887,
      1.539535403251648,
      -1.0666518211364746,
      -1.13018000125885,
      -1.3238774538040161,
      -0.7453678846359253,
      -0.6342712640762329,
      1.2188410758972168,
      0.7403041124343872,
      -1.8812720775604248,
      -0.8906430006027222,
      1.1110488176345825,
      -1.5735416412353516,
      -1.6253756284713745,
      0.7203423380851746,
      -1.1130058765411377,
      -1.7705026865005493,
      -0.8295552134513855,
      0.8816586136817932,
      -0.7142139077186584,
      -0.5979675650596619,
      -0.7073476314544678,
      -0.821996808052063,
      -0.836178719997406,
      -0.6629638075828552,
      -0.6933184266090393,
      -0.8256068229675293,
      -0.753684401512146,
      -1.719761610031128,
      -1.138279914855957,
      0.8570317029953003,
      -0.662024736404419,
      1.0644488334655762,
      -1.2601768970489502,
      -0.7398430109024048,
      1.1500539779663086,
      -0.8345311284065247,
      0.7758122086524963,
      -1.0462101697921753,
      -1.093680739402771,
      -1.1543058156967163,
      -1.0901384353637695,
      -0.5280043482780457,
      -0.6605695486068726,
      -1.1047651767730713,
      -1.1932587623596191,
      -0.623586118221283,
      -0.8574802279472351,
      -0.6623422503471375,
      -0.7205682992935181,
      0.6651336550712585,
      -0.625775158405304,
      1.222163200378418,
      -0.8159316778182983,
      -0.987055242061615,
      0.8268976211547852,
      -0.5943625569343567,
      -0.6896311044692993,
      -0.7803460955619812,
      -0.8663323521614075,
      -1.102409839630127,
      -1.1269642114639282,
      -0.5495794415473938,
      -2.7719805240631104,
      0.9978914260864258,
      0.8301864266395569,
      -1.684317708015442,
      0.6306347846984863,
      0.9208292961120605,
      -0.8156009912490845,
      0.9073468446731567,
      0.8786945343017578,
      -0.7200691103935242,
      -0.6405799388885498,
      -0.8268678784370422,
      -0.7269437313079834,
      -1.4811822175979614,
      -1.7172235250473022,
      0.5699728727340698,
      -1.144730567932129,
      -0.6785768270492554,
      -0.11637137830257416,
      -1.1205382347106934,
      0.5939631462097168,
      -0.6502475738525391,
      -0.9254094958305359,
      0.8425641059875488,
      -0.6459527015686035,
      -0.8563348054885864,
      -0.5622812509536743,
      -0.7509898543357849,
      -1.1163374185562134,
      -1.7164041996002197,
      1.3075835704803467,
      -0.7491774559020996,
      0.7531804442405701,
      -0.7378965020179749,
      -1.138468861579895,
      -0.7415921092033386,
      -0.6852232813835144,
      -0.7365881204605103,
      -0.6456930041313171,
      -0.7448112368583679,
      1.2813607454299927,
      0.6687073111534119
    ],
    [
      -1.272652506828308,
      -0.8146933317184448,
      0.9764268398284912,
      0.9689285159111023,
      -0.965495765209198,
      -0.5693375468254089,
      -1.142467975616455,
      0.6581434607505798,
      -0.756184458732605,
      -1.7128345966339111,
      -0.8322107195854187,
      1.1467291116714478,
      0.8535274267196655,
      -0.8720750212669373,
      1.2543034553527832,
      -0.9226853847503662,
      -0.6031882762908936,
      -0.8209488391876221,
      -1.2230384349822998,
      -1.4231332540512085,
      -0.8496212959289551,
      1.4199910163879395,
      -0.8305618762969971,
      -0.7507955431938171,
      -0.7099068760871887,
      1.0559486150741577,
      -1.0683491230010986,
      1.1626161336898804,
      -1.490793228149414,
      -0.8013603687286377,
      -0.7696600556373596,
      -0.7108572125434875,
      -0.9267773628234863,
      -0.6160842180252075,
      -0.6524956822395325,
      0.47275370359420776,
      1.1125199794769287,
      1.2418309450149536,
      1.2336775064468384,
      -0.7311641573905945,
      -0.6285045742988586,
      -1.6554449796676636,
      -0.137063130736351,
      -0.9538012742996216,
      -0.7779639959335327,
      0.7441454529762268,
      -1.0627435445785522,
      -1.3776711225509644,
      2.1191437244415283,
      -1.0944277048110962,
      -1.6379752159118652,
      1.1134753227233887,
      0.18401139974594116,
      -0.7645202875137329,
      0.7818711400032043,
      -0.23551906645298004,
      0.7238613963127136,
      -1.2300986051559448,
      -0.5401237607002258,
      -0.6398909091949463,
      -0.6916530728340149,
      -0.9433555603027344,
      -1.5555553436279297,
      1.1179918050765991,
      -0.6774855852127075,
      -0.7783700227737427,
      0.44532158970832825,
      -1.0550552606582642,
      -0.7441108226776123,
      -1.2234854698181152,
      -0.7549799680709839,
      -0.6101812124252319,
      -1.068839430809021,
      -0.7645518183708191,
      -1.099913239479065,
      -1.0680731534957886,
      -0.5578249096870422,
      -0.5912269353866577,
      1.0936427116394043,
      -1.12088942527771,
      -0.7558143138885498,
      -0.6980505585670471,
      0.7104830741882324,
      -0.7992254495620728,
      -0.6242464780807495,
      -0.9047253727912903,
      -0.9333361983299255,
      -1.4409301280975342,
      1.0107085704803467,
      -0.646388828754425,
      -0.900849461555481,
      -0.9188253283500671,
      -1.2394404411315918,
      -0.8674079775810242,
      1.0431370735168457,
      1.0091891288757324,
      -0.5802674889564514,
      1.8582948446273804,
      -0.7717332243919373,
      -0.64547199010849,
      -1.4517179727554321,
      -0.6223207116127014,
      -0.6780849099159241,
      -0.8222496509552002,
      -0.7153431177139282,
      -0.6293736100196838,
      -0.9003339409828186,
      -0.5111066102981567,
      -0.9770022630691528,
      0.6701247692108154,
      -1.064841389656067,
      -1.7330278158187866,
      1.3332816362380981,
      -1.15019953250885,
      -0.7114431858062744,
      0.8851388096809387,
      -0.8261926770210266,
      -0.594739556312561,
      -0.6088955402374268,
      -0.981187105178833,
      -0.7109455466270447,
      -0.5608949065208435,
      -0.7805240154266357,
      -0.481831431388855,
      -0.9625793099403381,
      -0.7676383256912231,
      -1.5027611255645752,
      -1.25518798828125,
      -0.8573938012123108,
      -0.6661748290061951,
      0.7734512090682983,
      1.365814447402954,
      -0.8108295202255249,
      0.7228327989578247,
      -0.7239500880241394,
      -0.8037421107292175,
      -0.873121440410614,
      -0.9123205542564392,
      -1.1067067384719849
    ],
    [
      1.3653346300125122,
      -0.6547090411186218,
      -1.222103238105774,
      -0.8521697521209717,
      1.008338451385498,
      -0.5574098825454712,
      1.0272215604782104,
      -0.8494473695755005,
      -0.5839938521385193,
      -1.337273359298706,
      -0.8949921131134033,
      -1.1335314512252808,
      -0.6554949283599854,
      1.3650357723236084,
      -1.1723530292510986,
      -0.6730181574821472,
      -0.6459118723869324,
      -0.5988239645957947,
      1.2544382810592651,
      -1.089030146598816,
      -0.9282955527305603,
      1.2506800889968872,
      -0.5876817107200623,
      0.8196619153022766,
      -1.0422204732894897,
      -1.2149074077606201,
      -1.1830002069473267,
      -1.0986497402191162,
      -0.9613503217697144,
      -0.790544331073761,
      0.7870851159095764,
      -0.7027490735054016,
      -0.8157811164855957,
      -0.5719377994537354,
      -0.7908685207366943,
      -0.8064317107200623,
      -0.7651390433311462,
      -1.2760332822799683,
      -1.0250072479248047,
      -0.8223141431808472,
      -0.6947066187858582,
      -1.064928650856018,
      0.7419712543487549,
      -1.594552755355835,
      -0.86539626121521,
      -1.382541537284851,
      1.2081042528152466,
      -1.5538688898086548,
      0.9953837394714355,
      -1.1669949293136597,
      -1.6078726053237915,
      -0.7712329626083374,
      0.7407895922660828,
      0.8395064473152161,
      -0.9128043055534363,
      0.6670657992362976,
      0.6795911192893982,
      1.0550401210784912,
      -0.6122886538505554,
      -0.7904985547065735,
      0.846528172492981,
      0.9563738703727722,
      -1.0911482572555542,
      -0.9357464909553528,
      -1.094602108001709,
      -0.7420426607131958,
      0.7202821373939514,
      -0.8947962522506714,
      0.7486491799354553,
      0.061290670186281204,
      1.0456739664077759,
      -0.8602578639984131,
      1.0274724960327148,
      0.7824031114578247,
      1.0453388690948486,
      1.0434733629226685,
      -0.557428240776062,
      -0.6300021409988403,
      -0.7801702618598938,
      -1.079498052597046,
      -0.7098639011383057,
      -0.8972587585449219,
      -0.8669368624687195,
      -0.5581645369529724,
      -0.740976870059967,
      -0.751453161239624,
      -1.249883770942688,
      1.2243653535842896,
      0.9598808884620667,
      -0.895400881767273,
      -0.6599156856536865,
      -0.5703411102294922,
      1.0604168176651,
      -0.888064980506897,
      -0.7622671127319336,
      -0.9467364549636841,
      -0.5553863048553467,
      -0.8009957671165466,
      -0.8697293996810913,
      -1.0600718259811401,
      -0.95145183801651,
      -0.6715635657310486,
      -1.0175384283065796,
      -0.6574920415878296,
      -1.1352880001068115,
      -1.1985026597976685,
      -0.554623007774353,
      -0.6537872552871704,
      0.7925549149513245,
      0.8292499780654907,
      -1.5065135955810547,
      -1.7244007587432861,
      -0.9365566968917847,
      -1.0648590326309204,
      -0.5553807020187378,
      -0.8786280751228333,
      0.8330762386322021,
      -0.6727820038795471,
      -0.5400046706199646,
      0.9083755612373352,
      -0.8628712892532349,
      -0.6124496459960938,
      0.8319991827011108,
      -0.5503604412078857,
      0.9551405906677246,
      1.0369257926940918,
      -1.0775915384292603,
      -1.1277647018432617,
      0.8921037912368774,
      -0.8842390179634094,
      -0.7636076211929321,
      -1.5868263244628906,
      -0.8244766592979431,
      -0.841433048248291,
      0.7672582268714905,
      -0.7318292856216431,
      0.8755413889884949,
      -1.1322095394134521,
      0.5845325589179993
    ],
    [
      -1.1309186220169067,
      -0.8814391493797302,
      -0.8425437211990356,
      -1.1902798414230347,
      -1.32914137840271,
      0.6071929335594177,
      -0.9084226489067078,
      -0.6232019066810608,
      -0.8635299801826477,
      -1.939232349395752,
      -1.2738031148910522,
      -1.1947129964828491,
      -0.9094974398612976,
      -1.445963740348816,
      -1.1204534769058228,
      0.8222082257270813,
      0.6330828666687012,
      0.673711359500885,
      -1.3258085250854492,
      -1.2187635898590088,
      -1.2831799983978271,
      -1.403643250465393,
      0.5458264946937561,
      -0.6513658165931702,
      -1.0100531578063965,
      -0.8011771440505981,
      1.1725006103515625,
      -1.3955236673355103,
      -1.5376079082489014,
      -0.8171653151512146,
      -0.8903450965881348,
      0.25001969933509827,
      -1.3396477699279785,
      0.5763780474662781,
      -0.6042001247406006,
      -1.4677749872207642,
      -0.601465106010437,
      -1.6448960304260254,
      -1.3149508237838745,
      -1.1612788438796997,
      -0.6164432764053345,
      -1.4279199838638306,
      -0.8581832051277161,
      -1.541460633277893,
      -1.2517709732055664,
      -0.7487689256668091,
      -1.2245254516601562,
      1.5167970657348633,
      -1.2716655731201172,
      1.1193735599517822,
      1.6814302206039429,
      -1.0192915201187134,
      -0.9087913632392883,
      -1.029690146446228,
      -0.6632177829742432,
      -1.040779948234558,
      -0.5437008738517761,
      -0.9718254804611206,
      0.6286117434501648,
      -0.6223176717758179,
      -1.0499398708343506,
      -1.2795125246047974,
      1.5979559421539307,
      -1.1795636415481567,
      -0.7897026538848877,
      -0.932488203048706,
      -0.8780540823936462,
      -1.4043048620224,
      -0.8372179865837097,
      -1.0227069854736328,
      -0.9239497780799866,
      -0.7991956472396851,
      -1.1192892789840698,
      -0.71550053358078,
      -1.0532180070877075,
      -1.0661007165908813,
      0.5491457581520081,
      0.6520359516143799,
      -1.1923454999923706,
      1.0779234170913696,
      -0.8832650780677795,
      -0.620295524597168,
      -0.8166152238845825,
      -0.8278713822364807,
      -0.5253984928131104,
      -1.3179233074188232,
      -1.6129627227783203,
      -0.9977107048034668,
      -1.1649845838546753,
      -0.6575179100036621,
      0.8074439167976379,
      0.807257890701294,
      -1.141265869140625,
      -1.243026614189148,
      -1.2392421960830688,
      -1.075819492340088,
      0.6496951580047607,
      -0.7831271886825562,
      -0.9627425670623779,
      -0.8200584650039673,
      -1.516729712486267,
      -0.5455416440963745,
      -0.7926749587059021,
      -0.7977460622787476,
      -0.7358289361000061,
      -0.8564662337303162,
      0.7557092308998108,
      0.6715944409370422,
      -0.8418970108032227,
      -0.7281400561332703,
      1.3139320611953735,
      1.6671526432037354,
      -0.6401580572128296,
      1.1397730112075806,
      -0.8168908953666687,
      -1.2630441188812256,
      -0.8263194561004639,
      -0.5149641036987305,
      0.6783003807067871,
      -0.8742703795433044,
      -0.8812000751495361,
      -0.6721156239509583,
      -0.9075490832328796,
      0.6177540421485901,
      -1.2693159580230713,
      -1.2162444591522217,
      1.66434645652771,
      -1.1148697137832642,
      -0.8967943787574768,
      -0.8343562483787537,
      -0.8456130027770996,
      -1.5999784469604492,
      -0.9244149923324585,
      -0.6928749680519104,
      -0.9870228171348572,
      -1.3280285596847534,
      -0.8826838135719299,
      -1.5567622184753418,
      1.2978036403656006
    ]
  ]
}