{
  "bias": [
    -0.10408678650856018,
    0.28154924511909485,
    0.1283455491065979
  ],
  "class_counts": {
    "best_move": 8,
    "eval": 8,
    "review_move": 12
  },
  "device": "cpu",
  "example_count": 28,
  "labels": [
    "best_move",
    "eval",
    "review_move"
  ],
  "model_type": "basic-torch-linear-router-sft-v2",
  "trainer": "linear",
  "vocabulary": [
    "a",
    "and",
    "board",
    "candidate",
    "consider",
    "current",
    "evaluate",
    "f3g5",
    "find",
    "g1h3",
    "g8h6",
    "good",
    "here",
    "how",
    "i",
    "in",
    "is",
    "legal",
    "looking",
    "move",
    "my",
    "please",
    "position",
    "practical",
    "review",
    "should",
    "the",
    "this",
    "useful",
    "was",
    "what"
  ],
  "weights": [
    [
      0.3576561212539673,
      -0.08203035593032837,
      -0.2733699381351471,
      0.3689314126968384,
      0.3162582516670227,
      -0.4119049310684204,
      -0.2507905662059784,
      -0.07826961576938629,
      0.08241776376962662,
      -0.09074021875858307,
      -0.21083714067935944,
      -0.37767788767814636,
      0.09057915955781937,
      -0.36831340193748474,
      0.15188758075237274,
      -0.15806272625923157,
      -0.2869693636894226,
      -0.3438885807991028,
      -0.16099315881729126,
      0.4069047272205353,
      -0.3601089417934418,
      -0.16527611017227173,
      -0.15393367409706116,
      0.23446466028690338,
      -0.3925742208957672,
      0.18467620015144348,
      -0.11642670631408691,
      -0.30428346991539,
      -0.12008534371852875,
      -0.12176068127155304,
      0.09312641620635986
    ],
    [
      -0.22682629525661469,
      -0.3105248808860779,
      0.06325352191925049,
      -0.25509968400001526,
      -0.2517646849155426,
      0.18835926055908203,
      0.10111881792545319,
      -0.3962347209453583,
      -0.3766722083091736,
      -0.34514498710632324,
      -0.22981689870357513,
      -0.31246915459632874,
      -0.20285777747631073,
      0.3392063081264496,
      -0.19779419898986816,
      -0.17565631866455078,
      0.14072352647781372,
      -0.38433441519737244,
      0.140153169631958,
      -0.3386859893798828,
      -0.08951102197170258,
      -0.40822136402130127,
      0.3935387134552002,
      -0.125981867313385,
      -0.09340259432792664,
      -0.16861718893051147,
      0.1897057592868805,
      0.10136395692825317,
      -0.1139826774597168,
      -0.3963901400566101,
      -0.36364224553108215
    ],
    [
      -0.2940712571144104,
      0.2665105164051056,
      -0.24761609733104706,
      -0.30385375022888184,
      -0.13088347017765045,
      -0.37149375677108765,
      -0.40242958068847656,
      0.1773785501718521,
      -0.20804479718208313,
      0.3777701258659363,
      0.14513808488845825,
      0.10365079343318939,
      -0.23071661591529846,
      -0.1404743194580078,
      -0.1736026257276535,
      0.20504151284694672,
      0.1402437388896942,
      0.20792526006698608,
      -0.39804181456565857,
      -0.08546030521392822,
      0.11934686452150345,
      0.17445003986358643,
      0.11153855174779892,
      -0.0740576982498169,
      0.19142355024814606,
      -0.0921308696269989,
      -0.06967905163764954,
      0.08344945311546326,
      0.10756437480449677,
      0.1736193597316742,
      -0.1488754004240036
    ]
  ]
}