{
  "bias": [
    -0.44564834237098694,
    0.44533562660217285,
    -0.4774342179298401
  ],
  "device": "cuda",
  "example_count": 12,
  "labels": [
    "best_move",
    "eval",
    "review_move"
  ],
  "model_type": "basic-torch-linear-router-sft-v1",
  "vocabulary": [
    "consider",
    "current",
    "evaluate",
    "f3g5",
    "g1h3",
    "g8h6",
    "good",
    "i",
    "move",
    "my",
    "position",
    "should",
    "the",
    "was",
    "what"
  ],
  "weights": [
    [
      0.7395923137664795,
      -0.8863937258720398,
      -0.9774613976478577,
      -0.8059234619140625,
      -1.0113238096237183,
      -0.8623078465461731,
      -0.6289898753166199,
      0.963882565498352,
      0.8628068566322327,
      -1.0742700099945068,
      -0.9596918225288391,
      0.859312891960144,
      -0.6954344511032104,
      -1.0364630222320557,
      0.8159061074256897
    ],
    [
      -0.9946203231811523,
      0.7704312801361084,
      0.794516921043396,
      -0.9548514485359192,
      -0.5575993657112122,
      -0.9176695346832275,
      -0.8185893297195435,
      -0.6196837425231934,
      -0.6795946359634399,
      -0.866488516330719,
      0.8049997687339783,
      -0.5614854097366333,
      0.855855405330658,
      -0.806108295917511,
      -0.8057349324226379
    ],
    [
      -1.0191113948822021,
      -0.6849302053451538,
      -0.579671323299408,
      0.8359735012054443,
      0.9419211149215698,
      0.8049865961074829,
      0.6890409588813782,
      -0.6924470067024231,
      0.7003512382507324,
      0.687631368637085,
      -0.5790265202522278,
      -0.7160956263542175,
      -0.6598809361457825,
      0.8851228356361389,
      -0.8465228080749512
    ]
  ]
}