{
  "bias": [
    -0.4313359558582306,
    0.2967066764831543,
    0.07757635414600372
  ],
  "class_counts": {
    "best_move": 8,
    "eval": 8,
    "review_move": 12
  },
  "device": "cpu",
  "example_count": 28,
  "labels": [
    "best_move",
    "eval",
    "review_move"
  ],
  "model_type": "basic-torch-linear-router-sft-v2",
  "trainer": "linear",
  "vocabulary": [
    "a",
    "and",
    "board",
    "candidate",
    "consider",
    "current",
    "evaluate",
    "f3g5",
    "find",
    "g1h3",
    "g8h6",
    "good",
    "here",
    "how",
    "i",
    "in",
    "is",
    "legal",
    "looking",
    "move",
    "my",
    "please",
    "position",
    "practical",
    "review",
    "should",
    "the",
    "this",
    "useful",
    "was",
    "what"
  ],
  "weights": [
    [
      0.7696846127510071,
      -0.642731785774231,
      -0.7609814405441284,
      0.7498732805252075,
      0.8675248622894287,
      -0.6369214057922363,
      -0.8235470652580261,
      -0.7309052348136902,
      0.7502021193504333,
      -0.7239250540733337,
      -0.7240719199180603,
      -0.7691172957420349,
      0.5767834186553955,
      -0.7415260076522827,
      0.7702860236167908,
      -0.7880194187164307,
      -0.768327534198761,
      -0.5349485278129578,
      -0.6662086844444275,
      0.7196082472801208,
      -0.9193541407585144,
      -0.48332479596138,
      -0.8160883188247681,
      0.5998707413673401,
      -0.8028336763381958,
      0.7820680141448975,
      -0.8119046688079834,
      -0.7075181007385254,
      -0.8076738119125366,
      -0.7891016602516174,
      0.6454147100448608
    ],
    [
      -0.7069106101989746,
      -1.0290368795394897,
      0.8508847951889038,
      -0.8356733322143555,
      -0.6610031723976135,
      0.7384502291679382,
      0.8133338093757629,
      -0.9417454600334167,
      -0.6240043640136719,
      -0.9706317186355591,
      -0.7007595300674438,
      -0.9531549215316772,
      -0.5629764795303345,
      0.7001858949661255,
      -0.77985018491745,
      -0.9160622358322144,
      0.8624838590621948,
      -1.0039888620376587,
      0.7896896600723267,
      -0.8511989116668701,
      -0.7045400738716125,
      -0.8788655996322632,
      0.8104392290115356,
      -0.5629968643188477,
      -0.8290171027183533,
      -0.924667239189148,
      0.8556259274482727,
      0.6910403370857239,
      -0.8447218537330627,
      -0.6317848563194275,
      -0.8761424422264099
    ],
    [
      -0.9083169102668762,
      0.8843904137611389,
      -1.0754376649856567,
      -0.8072644472122192,
      -0.9153253436088562,
      -0.8786728978157043,
      -0.9357070922851562,
      0.6856082081794739,
      -0.8292269706726074,
      0.7022954821586609,
      0.8808623552322388,
      0.9095804691314697,
      -0.8361396193504333,
      -0.9949930906295776,
      -0.9912532567977905,
      0.9361042976379395,
      0.467571884393692,
      0.6647360324859619,
      -1.0913279056549072,
      0.1334804743528366,
      0.8167487382888794,
      0.8454226851463318,
      -0.03386135771870613,
      -0.6092004776000977,
      0.9657146334648132,
      -0.83855140209198,
      -0.9302493333816528,
      0.5339648723602295,
      0.8892062902450562,
      0.6978018283843994,
      -0.8030237555503845
    ]
  ]
}